<?xml version="1.0" encoding="US-ASCII"?>

<!--
  Bayesian network in XMLBIF v0.3 (BayesNet Interchange Format)
  Produced by SamIam http://reasoning.cs.ucla.edu/samiam
  Output created May 13, 2013 12:09:30 PM
-->

<BIF VERSION="0.3">
<NETWORK>
  <NAME>bayesiannetwork</NAME>

  <VARIABLE TYPE="nature">
    <NAME>x</NAME>
    <OUTCOME>p0</OUTCOME>
    <OUTCOME>p1</OUTCOME>
    <OUTCOME>p2</OUTCOME>
    <OUTCOME>p3</OUTCOME>
    <OUTCOME>p4</OUTCOME>
    <OUTCOME>p5</OUTCOME>
    <OUTCOME>p6</OUTCOME>
    <OUTCOME>p7</OUTCOME>
    <OUTCOME>p8</OUTCOME>
    <OUTCOME>p9</OUTCOME>
    <PROPERTY>position = (477, -200)</PROPERTY>
  </VARIABLE>

  <VARIABLE TYPE="nature">
    <NAME>door</NAME>
    <OUTCOME>True</OUTCOME>
    <OUTCOME>False</OUTCOME>
    <PROPERTY>position = (479, -65)</PROPERTY>
  </VARIABLE>

  <VARIABLE TYPE="nature">
    <NAME>x0</NAME>
    <OUTCOME>p0</OUTCOME>
    <OUTCOME>p1</OUTCOME>
    <OUTCOME>p2</OUTCOME>
    <OUTCOME>p3</OUTCOME>
    <OUTCOME>p4</OUTCOME>
    <OUTCOME>p5</OUTCOME>
    <OUTCOME>p6</OUTCOME>
    <OUTCOME>p7</OUTCOME>
    <OUTCOME>p8</OUTCOME>
    <OUTCOME>p9</OUTCOME>
    <PROPERTY>position = (260, -200)</PROPERTY>
  </VARIABLE>

  <DEFINITION>
    <FOR>x</FOR>
    <GIVEN>x0</GIVEN>
    <TABLE>
    0.05 0.9 0.05 0.0 0.0 0.0 0.0 0.0 0.0 0.0
    0.0 0.05 0.9 0.05 0.0 0.0 0.0 0.0 0.0 0.0
    0.0 0.0 0.05 0.9 0.05 0.0 0.0 0.0 0.0 0.0
    0.0 0.0 0.0 0.05 0.9 0.05 0.0 0.0 0.0 0.0
    0.0 0.0 0.0 0.0 0.05 0.9 0.05 0.0 0.0 0.0
    0.0 0.0 0.0 0.0 0.0 0.05 0.9 0.05 0.0 0.0
    0.0 0.0 0.0 0.0 0.0 0.0 0.05 0.9 0.05 0.0
    0.0 0.0 0.0 0.0 0.0 0.0 0.0 0.05 0.9 0.05
    0.05 0.0 0.0 0.0 0.0 0.0 0.0 0.0 0.05 0.9 
    0.9 0.05 0.0 0.0 0.0 0.0 0.0 0.0 0.0 0.05
    </TABLE>
  </DEFINITION>

  <DEFINITION>
    <FOR>door</FOR>
    <GIVEN>x</GIVEN>
    <TABLE>0.01 0.99 0.99 0.01 0.01 0.99 0.99 0.01 0.01 0.99 0.01 0.99 0.01 0.99 0.99 0.01 0.01 0.99 0.01 0.99 </TABLE>
  </DEFINITION>

  <DEFINITION>
    <FOR>x0</FOR>
    <TABLE>0.10000000000000002 0.10000000000000002 0.10000000000000002 0.10000000000000002 0.10000000000000002 0.10000000000000002 0.10000000000000002 0.10000000000000002 0.10000000000000002 0.10000000000000002 </TABLE>
  </DEFINITION>

</NETWORK>
</BIF>
